digraph Tree {
node [shape=box, style="filled, rounded", color="black", fontname=helvetica] ;
edge [fontname=helvetica] ;
0 [label="Site EUI (kBtu/ft²) <= 0.437\nmse = 854.62\nsamples = 4210\nvalue = 61.409", fillcolor="#efb286"] ;
1 [label="Site EUI (kBtu/ft²) <= 0.334\nmse = 491.236\nsamples = 2848\nvalue = 73.972", fillcolor="#eca26d"] ;
0 -> 1 [labeldistance=2.5, labelangle=45, headlabel="True"] ;
2 [label="Weather Normalized Site Electricity Intensity (kWh/ft²) <= 0.101\nmse = 320.957\nsamples = 1408\nvalue = 84.745", fillcolor="#e99458"] ;
1 -> 2 ;
3 [label="Site EUI (kBtu/ft²) <= 0.262\nmse = 154.355\nsamples = 886\nvalue = 90.352", fillcolor="#e88d4c"] ;
2 -> 3 ;
4 [label="(...)", fillcolor="#C0C0C0"] ;
3 -> 4 ;
47 [label="(...)", fillcolor="#C0C0C0"] ;
3 -> 47 ;
92 [label="Site EUI (kBtu/ft²) <= 0.181\nmse = 460.226\nsamples = 522\nvalue = 75.14", fillcolor="#eca16b"] ;
2 -> 92 ;
93 [label="(...)", fillcolor="#C0C0C0"] ;
92 -> 93 ;
112 [label="(...)", fillcolor="#C0C0C0"] ;
92 -> 112 ;
189 [label="Weather Normalized Site Electricity Intensity (kWh/ft²) <= 0.101\nmse = 429.008\nsamples = 1440\nvalue = 63.175", fillcolor="#efb083"] ;
1 -> 189 ;
190 [label="Site EUI (kBtu/ft²) <= 0.384\nmse = 195.055\nsamples = 836\nvalue = 71.406", fillcolor="#eda672"] ;
189 -> 190 ;
191 [label="(...)", fillcolor="#C0C0C0"] ;
190 -> 191 ;
234 [label="(...)", fillcolor="#C0C0C0"] ;
190 -> 234 ;
277 [label="Weather Normalized Site Electricity Intensity (kWh/ft²) <= 0.274\nmse = 530.093\nsamples = 604\nvalue = 52.163", fillcolor="#f2be99"] ;
189 -> 277 ;
278 [label="(...)", fillcolor="#C0C0C0"] ;
277 -> 278 ;
353 [label="(...)", fillcolor="#C0C0C0"] ;
277 -> 353 ;
384 [label="Site EUI (kBtu/ft²) <= 0.533\nmse = 558.99\nsamples = 1362\nvalue = 34.187", fillcolor="#f6d5bd"] ;
0 -> 384 [labeldistance=2.5, labelangle=-45, headlabel="False"] ;
385 [label="Weather Normalized Site Electricity Intensity (kWh/ft²) <= 0.103\nmse = 447.522\nsamples = 787\nvalue = 42.611", fillcolor="#f4caac"] ;
384 -> 385 ;
386 [label="Site EUI (kBtu/ft²) <= 0.459\nmse = 244.092\nsamples = 377\nvalue = 48.811", fillcolor="#f2c2a0"] ;
385 -> 386 ;
387 [label="(...)", fillcolor="#C0C0C0"] ;
386 -> 387 ;
418 [label="(...)", fillcolor="#C0C0C0"] ;
386 -> 418 ;
461 [label="DOF Gross Floor Area <= 0.034\nmse = 562.363\nsamples = 410\nvalue = 37.192", fillcolor="#f6d1b7"] ;
385 -> 461 ;
462 [label="(...)", fillcolor="#C0C0C0"] ;
461 -> 462 ;
515 [label="(...)", fillcolor="#C0C0C0"] ;
461 -> 515 ;
532 [label="Site EUI (kBtu/ft²) <= 0.606\nmse = 488.676\nsamples = 575\nvalue = 23.06", fillcolor="#f9e3d3"] ;
384 -> 532 ;
533 [label="Year Built <= 0.876\nmse = 412.833\nsamples = 259\nvalue = 29.007", fillcolor="#f8dcc8"] ;
532 -> 533 ;
534 [label="(...)", fillcolor="#C0C0C0"] ;
533 -> 534 ;
587 [label="(...)", fillcolor="#C0C0C0"] ;
533 -> 587 ;
606 [label="Order <= 0.265\nmse = 498.009\nsamples = 316\nvalue = 18.16", fillcolor="#fbeadd"] ;
532 -> 606 ;
607 [label="(...)", fillcolor="#C0C0C0"] ;
606 -> 607 ;
640 [label="(...)", fillcolor="#C0C0C0"] ;
606 -> 640 ;
}